{
  "weights": [
    0.06340195078040992,
    0.10822520374973654,
    0.16642223690755045,
    -0.000812333439906554,
    -0.07915954189628885,
    -0.006773543392623871,
    0.058592485023877344,
    -0.040422139843773026,
    0.01602488290624264,
    0.04244854347199506,
    0.17907611229308915,
    -0.003994520998814879,
    0.0649963295128127,
    -0.08997080645142767,
    0.08173358835096844,
    -0.03061187158849167,
    0.0741716457178325,
    0.19415209661881097,
    -0.06054311434184173,
    -0.04300792308569251,
    0.1400439155946117,
    0.06204557850676248,
    0.13489430373854575,
    0.005534724983649444,
    -0.025472592163054503,
    -0.027488791259139722,
    0.05581510665162909,
    0.11552688291110597,
    0.09356459827790717,
    0.10003192578801043,
    0.015776639497697295,
    0.11551820504063123,
    0.08909378376673002,
    -0.02475773662640604,
    0.08204395424145494,
    0.12266847589415711,
    0.0645375010524559,
    0.06470478900901908,
    -0.2421850912150668,
    46.80315593727036,
    95.07349361983694,
    39.083087073427535,
    -3.0311636218426106,
    74.92138115680663,
    217.49923720066622,
    106.72231154595039,
    -0.9473646285738289,
    0.1363652095658736,
    -0.0824805645229491,
    0.18078882190009013,
    0.08150614921515262,
    0.08922527307425493,
    -0.0700875685877855,
    0.19190353545428665,
    0.038201063072224456,
    0.11831815015124306,
    0.13064912413471644,
    0.08591912908268468,
    0.14004034288462908,
    0.4196570984098391,
    0.20516610627489856,
    -0.5321310505902068,
    -8.768990490505413,
    -20.319873772328847,
    -58.05702982425478,
    -107.72719396025431,
    -84.40217824500938,
    -84.49942476594279,
    -107.54438343683402,
    -122.64649326062043,
    -155.18285392097786,
    -176.70597445402643,
    -90.80753920168975,
    -134.750509842055,
    -136.76363029467856,
    -128.66016187020955,
    -134.12873670922366,
    -58.47812482521396,
    -15.747656609707075,
    -4.17850071936161,
    -2.2618418045897166,
    -0.0740140509995979,
    -0.07439004687017153,
    0.09333767670518109,
    -0.05940776293723402,
    0.15844403728838033,
    -0.060222430368382596,
    0.9612996176526877,
    2.1289673566984977,
    -8.3897883316626,
    -53.6609854022522,
    -115.5638856414382,
    -64.30131750910331,
    -161.4244505224773,
    -234.14962883771284,
    -32.2757026510954,
    -132.091918504198,
    60.263792066076995,
    -94.91730060813222,
    -5.621047398900135,
    -76.21196192082006,
    -39.84944818179166,
    -81.75585151603161,
    -72.42025196389169,
    -17.864111052430466,
    -150.52262647952097,
    -123.95169350533081,
    -13.005258893237214,
    -3.718694450527743,
    -39.60922611422283,
    -10.66744452227829,
    0.014663029468104646,
    -0.026227132664999944,
    0.10634737119915283,
    0.1886182188901808,
    0.06255289530915417,
    -9.455852223408574,
    -45.76012652283956,
    -44.09265779275449,
    -57.73451183610702,
    -22.83392723604326,
    71.89142988684463,
    -68.3619811523611,
    72.96949175572888,
    -75.3341575577867,
    36.214476473147855,
    -87.68884095561013,
    67.22460366593221,
    -92.01291668390915,
    25.26151268771483,
    15.487055150445594,
    -25.779687251019343,
    -11.600811317142194,
    -19.46687287910028,
    -24.53971211821389,
    -73.4488234291891,
    -13.538634934482818,
    -26.226525831425008,
    -13.23859753509274,
    0.1403501299529745,
    0.1613245649023329,
    -0.025511630836862018,
    -2.7556604091079984,
    0.1031590449994072,
    -43.13353583238126,
    -91.21465663203355,
    156.1449522569942,
    -75.76244866075594,
    -7.669855518024695,
    -28.434153279394934,
    34.132820402665246,
    -9.320900442615702,
    -40.71430660581282,
    31.73195073555467,
    -20.161324674926647,
    5.196237664247635,
    -7.503276237756495,
    4.2903882934305875,
    -19.761678888553057,
    -15.138858173754862,
    31.7051318238994,
    -17.397103953348918,
    -49.874451187375975,
    -4.167029338404668,
    -76.77685579593947,
    -112.00961002270512,
    -17.09139916327898,
    -26.9136241049122,
    0.14808761478283833,
    -0.10597182245513696,
    -7.330921042419051,
    -0.3472526006913692,
    -87.14421103906729,
    -45.836320344533526,
    -21.87834427242768,
    -42.61356252624127,
    44.372955525990264,
    -95.62353904840779,
    27.63835122736365,
    -41.69276782369315,
    -28.207338073823554,
    15.232273413507775,
    -3.8560763078287965,
    7.991103665103674,
    -2.217162531474729,
    13.377132181534195,
    21.080610097613352,
    14.621877915400312,
    -18.885337162427682,
    28.520494516294267,
    55.120678602449594,
    -6.200548628770782,
    -138.04018153262786,
    -171.97402780589732,
    -126.47199094792484,
    -91.04591654361397,
    0.06859451836257327,
    -4.815240630321537,
    -3.245793110185976,
    -6.781780611342519,
    -35.38490661446391,
    36.37367434806764,
    44.10638658802676,
    12.396273924173384,
    -65.97893025813494,
    16.03003562914935,
    -6.571074807337164,
    27.22737524206249,
    -30.958255062289627,
    16.755229329339713,
    14.711378010981733,
    -3.4288058784972266,
    -20.61668578315766,
    65.54658078020533,
    -17.36106015655149,
    55.60934194533327,
    -18.859742349756115,
    -9.790940890419483,
    -47.994807155718,
    29.554463931224753,
    -50.56912509231893,
    -125.07360107249131,
    -110.45556396391214,
    -6.119541693590105,
    0.12899795385732904,
    -0.006993207650733635,
    -6.19512231806548,
    -14.700888632601178,
    -28.964203090527008,
    -73.22132075422009,
    24.564804481304584,
    -0.2675877249826703,
    -0.49605391707914703,
    -6.471995946505369,
    -15.144123030303128,
    -37.200392667729616,
    48.212950231182646,
    -24.62028287204936,
    18.866507954558195,
    -3.8380899686604484,
    99.59160714924425,
    -17.07872199377559,
    44.88799450713104,
    -44.34421456981005,
    45.343951282213084,
    25.29777565975898,
    44.63760000267129,
    -30.443880118579813,
    -58.2774359023934,
    -232.05598872578642,
    -91.36217315716642,
    -6.252212032379662,
    0.003959844256533326,
    -1.6560351619262816,
    18.1539525577996,
    -122.74888811597636,
    -115.82533897734713,
    -43.11736361846894,
    63.84602688221132,
    -29.63251803903722,
    -2.1798861262214033,
    12.163863559831636,
    47.40988139391716,
    -36.377944496417186,
    -26.087279721888372,
    64.83802538600541,
    -2.744670736879187,
    -34.98676119252062,
    21.675627449498144,
    31.806180859250713,
    14.843083172696495,
    69.46560253175309,
    32.943423923565106,
    -27.291853661059047,
    -65.12830298887002,
    36.46395372388298,
    -37.23206139637868,
    -228.63891097210274,
    -167.13423425450478,
    0.09456940048823681,
    -0.04306560629309436,
    -0.5978977330867975,
    118.156715616856,
    -92.64708500483759,
    54.69759686974599,
    21.208779535710825,
    -10.56389444722127,
    54.96100168262536,
    -31.15888488731919,
    -6.103320868290694,
    -28.897212191698898,
    54.02719989476241,
    -2.4169049392380155,
    -38.39175466496867,
    27.409866355758282,
    -4.663596016628389,
    25.397264080710027,
    14.56365717296734,
    63.92794244157409,
    -65.28132952241339,
    2.479072533552278,
    15.880082687703526,
    89.46048503731116,
    28.1715730047971,
    -15.29370983810977,
    -127.9622087271135,
    -147.38641046671,
    0.14319940567207531,
    0.030335911640051783,
    -0.029931632013338955,
    -19.480492444296253,
    55.354842108641705,
    -76.03308323841709,
    -58.69731245099486,
    42.86243549490141,
    -6.903606520608591,
    22.592925999650166,
    -20.401385123704724,
    -28.86484297833969,
    15.452761908058546,
    -65.55852435380673,
    29.947052990103067,
    -79.86780220469916,
    -36.56552419979066,
    -35.991510578495415,
    4.61502575410381,
    -58.79407874791293,
    43.984876860645855,
    3.8543139353568536,
    42.81947322872102,
    -1.189808602626015,
    31.670560552896852,
    -38.076848840741214,
    -245.23796280018072,
    -124.12694834454378,
    0.018191092188061267,
    -0.05643888132386471,
    -0.401206144295875,
    -9.722500053124701,
    30.84535489685646,
    -194.6594580392341,
    31.466358513873107,
    -13.596902819048246,
    -48.25168627790688,
    -10.963546831750534,
    7.621351871948829,
    -15.421992492033697,
    10.706104411048132,
    37.70968924635623,
    -8.392595310618411,
    -44.22358531277459,
    -47.49442366164513,
    -27.57320369242082,
    -5.3717484307324375,
    -6.080707014733221,
    -29.263866323182942,
    44.75765917116413,
    18.50269377249121,
    14.173033027116919,
    -49.75395331189907,
    80.13441149992956,
    13.008108170232255,
    -62.01900111339015,
    -0.0296128187024617,
    0.015644091690699857,
    -0.9153410974658527,
    -3.387293464485021,
    -17.263648716503038,
    130.54566966823288,
    -95.18621908495926,
    93.72329093307393,
    45.18063352894735,
    34.22027083735086,
    -3.5451549519520946,
    43.597786271490214,
    -17.989342311268103,
    -1.8693323302449283,
    -35.67074120483803,
    -22.911415413356963,
    -59.14421429014572,
    -47.735823592073096,
    -19.97658153100994,
    -5.145102963744627,
    -10.926001884246025,
    -60.47274280012749,
    -35.78129225045302,
    74.36331794028419,
    14.416657596024288,
    -7.998200239302642,
    63.12758905245884,
    -6.283473747751722,
    -0.6443936050439001,
    0.12787842953234285,
    0.035725389588496456,
    -26.081594188498467,
    -121.02366857926378,
    -61.31028318999228,
    79.34046410640262,
    3.2086896634277835,
    74.01914540438669,
    -30.407358741476145,
    37.613724708968114,
    -46.27662412277846,
    20.06639572472746,
    -3.0081010748039123,
    8.553838411358296,
    -121.54696320122127,
    -20.113269385941887,
    -97.35034274770445,
    20.67023959083177,
    -4.77740811411185,
    -18.03640767756,
    61.426195226391435,
    17.205222209479583,
    -26.75013527657837,
    54.126766552941255,
    -42.48225487369001,
    57.72018633977997,
    -40.390956661884054,
    -0.5698722487253196,
    0.19109477249894044,
    0.04952521394883841,
    -31.599206780216097,
    -134.00236081198412,
    40.50944498140501,
    24.113177911030583,
    -57.108169373637,
    59.16309531142847,
    41.60240052632563,
    6.999827313987532,
    46.922441947504645,
    -39.92260281718135,
    12.084867868538833,
    -29.004953367505163,
    -155.01736859084605,
    5.506566976861622,
    -66.00645316514503,
    -40.22341251418018,
    -22.20593657450891,
    -5.667337058511702,
    14.426390281928171,
    6.715423122887008,
    13.195131389753397,
    -6.160070039358777,
    61.60598102019405,
    -25.82219376217499,
    -76.92278308223642,
    0.1618396828873754,
    0.18328965615147955,
    -0.08290736851209657,
    -0.6148042737767849,
    -128.33462774847095,
    -63.00393857522248,
    26.117575328010883,
    1.6311499498761473,
    7.562035308506759,
    7.433901034758124,
    37.182427468932595,
    25.59634529225674,
    42.076368715498624,
    -15.213297381858176,
    -118.04838759943667,
    -62.60251983026443,
    -11.223720161288343,
    -35.20146132029893,
    7.251780959129601,
    -22.792851794320338,
    14.767006406209445,
    5.418959166098216,
    24.866226570358066,
    -75.25427854221854,
    12.104189953297317,
    -26.61638537386952,
    -118.54327989039206,
    -128.22782682220458,
    9.625850171372326,
    0.1313194610942797,
    0.09924809229258802,
    -2.3897098499529354,
    -57.50834658704963,
    5.06071024302748,
    31.78967457800804,
    17.99181202054984,
    9.796881815092615,
    19.639984310773272,
    -7.89517144257115,
    27.207390502043253,
    -54.177283298246124,
    8.433325001921489,
    -80.51613770003841,
    -51.77148906557391,
    -23.228981929979856,
    -31.215321240684222,
    22.57359711210121,
    -9.85288191285291,
    -2.9635783671197156,
    43.24321859573155,
    -65.54934625667288,
    95.54467635443095,
    -6.816710721106363,
    18.040585140752036,
    -47.41395122391881,
    -23.84478234101764,
    72.24695848328969,
    -0.031044472074765725,
    -0.0010331826347720202,
    -3.0506740596343187,
    -130.1924068851774,
    9.96201513374584,
    -42.866111678570725,
    -22.785251817980896,
    -2.4388824430152485,
    19.785047897199867,
    46.96789679365999,
    30.280289805328696,
    25.847159755071644,
    3.6412848270238087,
    -40.91411011754959,
    -60.812858561019546,
    -13.092388328198012,
    -54.21967350690377,
    -1.4127559739440367,
    -29.17288179382032,
    1.7434177181448878,
    -53.55979138233928,
    33.381996457100286,
    -55.0880449882606,
    -39.90650655615364,
    33.545792107778695,
    -29.831775713628076,
    -59.37981575437843,
    -34.87033674162093,
    0.14364453533523328,
    10.360429496730003,
    0.585598634492638,
    -137.79896398529345,
    -81.40179257011216,
    -11.628436017629653,
    38.86075687788197,
    -5.301735219120591,
    45.56988142769875,
    -39.73191802640205,
    21.10982466925002,
    -12.704308744682084,
    73.13568849310087,
    -77.33590336437267,
    -11.49028263993386,
    -12.915268747338269,
    -1.3082082012602985,
    -21.859882642260462,
    4.375593743432209,
    -54.69065897959955,
    19.46192138447274,
    12.844972210838993,
    47.83523855370922,
    -73.19863907683228,
    -19.88343495270425,
    -83.10983573659,
    -24.319982362414933,
    -8.787452897846588,
    0.053618169070385996,
    26.124686153998503,
    -34.30374244962301,
    -69.86016177836913,
    86.8714788328527,
    -8.095670492861666,
    -43.19429196497757,
    28.45650375561835,
    11.927821846267944,
    -31.56675741385911,
    28.554149992577756,
    25.617511892518742,
    -7.034696410044424,
    45.95690891453191,
    -70.24965658298979,
    46.699880185940145,
    -61.088821146735945,
    -18.389381844942786,
    55.40970762786502,
    -9.069697233733086,
    -32.384735991396965,
    -19.183444792986453,
    1.0109023580573133,
    -5.469638699225943,
    -38.42380593575491,
    -95.43545217128225,
    -0.2846534419184685,
    -0.06606669055490912,
    -0.07276237782538854,
    -0.08554283628719218,
    -96.46665375519966,
    -6.77345872035219,
    -18.939160869015588,
    -11.293573573802806,
    21.584066244476613,
    12.404285644514216,
    -16.773658902877138,
    56.95579702822146,
    11.427063748161228,
    26.957246490039584,
    15.926777060174455,
    1.5874334226415314,
    -61.11418646036691,
    19.367800365141505,
    40.63332421349781,
    -114.09156261250507,
    -17.586681535524914,
    -39.26067867760919,
    -18.148488531727605,
    -73.68286932179603,
    75.64123113180895,
    -139.6308328468556,
    3.4448261289510085,
    -36.8876427009568,
    96.30144134449161,
    -0.02181027077942392,
    0.0814162730913634,
    -0.04177198137978103,
    -17.661005077306875,
    -43.9127406045747,
    -94.3575220614916,
    2.272859194625647,
    17.737188074804678,
    -12.120051239454916,
    10.268628541261203,
    1.8342277135614096,
    4.395535375561845,
    -4.507054934261258,
    -64.7019360779595,
    127.756662765035,
    -48.59988936948903,
    -19.169565736151146,
    -27.2180510554486,
    72.0674765901655,
    -57.995078965401014,
    42.61697089222348,
    34.66842205368684,
    -2.320992378413505,
    51.54035763642834,
    6.080088228073541,
    -61.14144795384437,
    -8.151575059904921,
    16.778068135708928,
    0.06302476856516329,
    0.005583441123098054,
    0.13863138584353318,
    0.1743003047695786,
    -17.637101500587814,
    -174.33163112782444,
    39.84941800490429,
    -38.38918692201417,
    38.55382759165152,
    -26.681403071610152,
    25.760158423390447,
    5.629868919811843,
    24.811393937213793,
    -7.127747522176586,
    -28.00181034688415,
    24.20632897356407,
    8.939595576502679,
    -61.239413260949604,
    69.09592770083236,
    -81.39991351711468,
    -32.825427426345456,
    -109.59864178931787,
    -47.10565888996665,
    13.989293069168347,
    -68.89550866656883,
    -80.5068028438744,
    -4.617081675411421,
    -1.7261657091221794,
    0.14237568619137794,
    0.14038948303170998,
    0.11112675700120223,
    -7.23928319628816,
    -10.039558841375944,
    -42.97774850523374,
    61.27312116997641,
    -57.07089070980956,
    -35.263159072720256,
    -12.133707821976202,
    44.71704441753701,
    10.439931924599119,
    -73.43728088792876,
    49.052740286252174,
    -29.340738999150737,
    -2.6324455175530006,
    36.111924020561084,
    -83.49672336117655,
    31.047765686058487,
    5.056645013125828,
    -63.4756497395297,
    -86.87681679273614,
    -62.20367626477479,
    -69.82304666053325,
    -131.08327371124648,
    -21.25045290726834,
    -0.027270892367788666,
    0.15076051512717312,
    0.17838159233246328,
    0.14383379722078604,
    0.1765656670168251,
    -0.02979348259279066,
    0.1183754479238528,
    -41.39612522688567,
    -89.36293010280023,
    -162.5246561614207,
    -180.3432376395117,
    -124.46956598909279,
    -77.7551980504468,
    -186.79414632796556,
    -4.671785808348665,
    -136.70832072964322,
    -102.61418016905836,
    -138.30441997013423,
    -225.78132838231744,
    -169.408677094991,
    -199.00164047934,
    -287.48379112420645,
    -147.91867173774477,
    -135.31173813810864,
    -126.48182817591322,
    -90.26662851038319,
    -48.51973399596652,
    -5.971157226181341,
    -0.08467035630229702,
    0.17224591299304995,
    -0.0380485481393932,
    -0.017113790207604535,
    0.03562986370477039,
    0.06634830916289691,
    0.09215716164661686,
    0.04392981551669267,
    -19.37990611404592,
    -36.85096777165519,
    -54.501568391854775,
    -74.08812941427627,
    -122.28444954166827,
    -149.61747602628668,
    -136.8873544427245,
    -96.50888458306652,
    -115.29107312771723,
    -114.913639880299,
    -162.27850514179366,
    -149.86593249696372,
    -90.94847236077338,
    -65.53631025823431,
    -14.44836107893006,
    -65.72395534646193,
    -91.40554008640987,
    -42.77366679414157,
    -6.093902534614434,
    -0.07902230077825309,
    0.16154702419896974,
    0.1077135767025875,
    0.13333917645037863,
    -0.02463780542118879,
    0.1357975888886167,
    0.08971309975382663,
    0.05853011436407948,
    0.13888312775248482,
    -2.2968636796195714,
    -11.781330463594973,
    -8.35367750036336,
    -6.821858647908897,
    -10.530615974596952,
    -9.446333966346735,
    -5.7830760821480265,
    -10.617719429311833,
    -12.29028723267819,
    -23.225992328586866,
    -34.77288225351561,
    -27.15904682293214,
    -3.8939883995476654,
    -2.4262962319652472,
    -1.4085802749879777,
    -5.035643917817258,
    -15.549887318180772,
    -47.97876647288682,
    -11.170682113876012,
    0.1989566064562794,
    0.0956193512705599,
    0.050717461027331906,
    -0.08731497475374238
  ],
  "bias": -72.67173451648004
}